-4.077606671587858
-5.905787063612797e-20
0.18335744333332424
-6.56480197999823e-06
-2.1882673266660768e-06
-7.164842745709712e-11
0.2
7.5164360442790406
0.5991961343251124
0.20000000000000442
1.604060990398574
0.0
1.7018387535010433
0.0001521170951786512
-0.6000000000038526
-0.30000000000000004
1.172344691802068
4.39648317751562e-15
0.5999961582736776
1.400242008085592
4.39648317751562e-15
-0.10015927519768794
2.5781977812704113
1.4807126398355515
-0.20120524206174314
0.0
-0.6744705502796143
-1.7189281855491012
-0.9661456819557169
-0.3004807441644718
-0.5431664970241479
-1.4313954650960443
-0.6000000000000001
0.6000003018467814
0.23676673029013823
-7.798868798528506e-08
-9.562459929132409e-65
-9.562459929132409e-65
-2.227404976306601e-06
-0.3168566247131542
0.09999811353898257
0.0013468974348364525
-2.1882673178731103e-06
0.0
1.0456089789673837
-0.20000203426026478
-3.8994339596159355e-08
-2.9591943952103836
0.2
0.17569011454829056
-0.09334830018785202
0.20000000000000442
-1.9124919858264817e-64
0.0
-0.9000000000000001
0.0
-5.905787063612797e-20
-2.1882673266660768e-06
-9.562459929132409e-65
0.02673691904379489
1.4456099610255995
0.0
-3.417833091792187
-1.5611841976180003
0.4756905726198569
-0.5991251716607054
0.8481893306227277
0.8611107292395223
-0.6839401015096133
-0.9000021883389795
-8.753069306664307e-06
1.0322890437922085
1.5374848244752248
-0.6911174537101809
1.3002298239766537
-0.83019456200723
-0.6482369760521295
-1.0824855471059248e-05
0.3999981135748089
0.19999600183157834
-2.267830599745548
1.8040625749777763
-0.7482258858791754
-2.0012231084625833
